<?xml version="1.0"?>
<opencv_storage>
<cascade>
  <stageType>BOOST</stageType>
  <featureType>LBP</featureType>
  <height>24</height>
  <width>24</width>
  <stageParams>
    <boostType>GAB</boostType>
    <minHitRate>9.9500000476837158e-01</minHitRate>
    <maxFalseAlarm>5.0000000000000000e-01</maxFalseAlarm>
    <weightTrimRate>9.4999998807907104e-01</weightTrimRate>
    <maxDepth>1</maxDepth>
    <maxWeakCount>100</maxWeakCount></stageParams>
  <featureParams>
    <maxCatCount>256</maxCatCount>
    <featSize>1</featSize></featureParams>
  <stageNum>15</stageNum>
  <stages>
    <!-- stage 0 -->
    <_>
      <maxWeakCount>3</maxWeakCount>
      <stageThreshold>-1.3587388992309570e+00</stageThreshold>
      <weakClassifiers>
        <_>
          <internalNodes>
            0 -1 19 -1849108035 16842761 104539 1493278739 -2001759745
            -2008512341 -2134210305 -359675681</internalNodes>
          <leafValues>
            -9.7280758619308472e-01 7.1287131309509277e-01</leafValues></_>
        <_>
          <internalNodes>
            0 -1 29 -643249923 -1660354544 1065031 -1727004535
            -2147318049 -1735884658 -1999664897 -122693121</internalNodes>
          <leafValues>
            -9.8000419139862061e-01 5.7853257656097412e-01</leafValues></_>
        <_>
          <internalNodes>
            0 -1 37 -1079354371 -572817135 -1835284225 -1646540931
            -1158752001 -71390309 -324100353 -83960836</internalNodes>
          <leafValues>
            -9.6446382999420166e-01 6.6414266824722290e-01</leafValues></_></weakClassifiers></_>
    <!-- stage 1 -->
    <_>
      <maxWeakCount>2</maxWeakCount>
      <stageThreshold>-5.2075564861297607e-01</stageThreshold>
      <weakClassifiers>
        <_>
          <internalNodes>
            0 -1 25 -649538051 -6729267 -1828503081 -15002853
            -1413881617 -83259378 -1712614917 -2107205</internalNodes>
          <leafValues>
            -9.9039119482040405e-01 7.2222220897674561e-01</leafValues></_>
        <_>
          <internalNodes>
            0 -1 30 -145424899 -69349031 -1794015075 -111197797
            -481328481 -83160687 -2018784293 -3423489</internalNodes>
          <leafValues>
            -9.9827039241790771e-01 4.6963557600975037e-01</leafValues></_></weakClassifiers></_>
    <!-- stage 2 -->
    <_>
      <maxWeakCount>3</maxWeakCount>
      <stageThreshold>-1.3973418474197388e+00</stageThreshold>
      <weakClassifiers>
        <_>
          <internalNodes>
            0 -1 7 -245643869 -15253051 1359550431 -16658281 -150828037
            -6190951 -629081349 -1320789</internalNodes>
          <leafValues>
            -9.3737238645553589e-01 4.4117647409439087e-01</leafValues></_>
        <_>
          <internalNodes>
            0 -1 33 -720113189 -6962915 285433117 -6323427 -1342159915
            2072218187 -1289119015 2138784539</internalNodes>
          <leafValues>
            -9.1207641363143921e-01 4.9929863214492798e-01</leafValues></_>
        <_>
          <internalNodes>
            0 -1 31 1072788983 -104474657 1904834999 1193267599 -7754753
            -71695477 -247219281 -1051909</internalNodes>
          <leafValues>
            -9.2644184827804565e-01 5.4124754667282104e-01</leafValues></_></weakClassifiers></_>
    <!-- stage 3 -->
    <_>
      <maxWeakCount>3</maxWeakCount>
      <stageThreshold>-1.4331058263778687e+00</stageThreshold>
      <weakClassifiers>
        <_>
          <internalNodes>
            0 -1 12 -145755221 -686845143 1364447643 -148901609
            -50212625 -1089830908 -215821905 -69209513</internalNodes>
          <leafValues>
            -9.1677850484848022e-01 4.3169400095939636e-01</leafValues></_>
        <_>
          <internalNodes>
            0 -1 27 -1110370315 1063059671 558636509 -41220647 403200507
            -23424885 -2001941569 -4919072</internalNodes>
          <leafValues>
            -9.4388049840927124e-01 3.7483122944831848e-01</leafValues></_>
        <_>
          <internalNodes>
            0 -1 16 -206310021 1497445201 1493260595 -1315974910
            1940642714 982237354 -74842114 2008800551</internalNodes>
          <leafValues>
            -8.9115858078002930e-01 4.9603885412216187e-01</leafValues></_></weakClassifiers></_>
    <!-- stage 4 -->
    <_>
      <maxWeakCount>3</maxWeakCount>
      <stageThreshold>-1.3971631526947021e+00</stageThreshold>
      <weakClassifiers>
        <_>
          <internalNodes>
            0 -1 5 -570953729 -706767723 -48918051 -48932845 -1146160641
            -660416350 -74851909 -68422917</internalNodes>
          <leafValues>
            -8.9895015954971313e-01 5.5704700946807861e-01</leafValues></_>
        <_>
          <internalNodes>
            0 -1 1 -544145924 -4221441 101829085 -17574799 -104142177
            -1147665304 -792466465 2080111327</internalNodes>
          <leafValues>
            -9.3721657991409302e-01 3.2727202773094177e-01</leafValues></_>
        <_>
          <internalNodes>
            0 -1 2 -268699649 -951729976 846043611 -70812453 -89931606
            -780041592 -1968481973 -939537801</internalNodes>
          <leafValues>
            -8.2548505067825317e-01 6.1260133981704712e-01</leafValues></_></weakClassifiers></_>
    <!-- stage 5 -->
    <_>
      <maxWeakCount>3</maxWeakCount>
      <stageThreshold>-1.4151250123977661e+00</stageThreshold>
      <weakClassifiers>
        <_>
          <internalNodes>
            0 -1 10 -643850753 1532448221 2030504447 -2158181 193627067
            -1178627943 -928307009 -3157045</internalNodes>
          <leafValues>
            -8.7731629610061646e-01 7.9629629850387573e-01</leafValues></_>
        <_>
          <internalNodes>
            0 -1 32 1062352639 2140131807 -679243297 1599060139
            -1148818689 -72419143 -1433687557 -69468469</internalNodes>
          <leafValues>
            -9.5016455650329590e-01 3.1808355450630188e-01</leafValues></_>
        <_>
          <internalNodes>
            0 -1 11 -543469057 -653197101 -1859042437 1605110751
            1107970083 -78968821 1531153214 -79732737</internalNodes>
          <leafValues>
            -8.5589230060577393e-01 5.6806355714797974e-01</leafValues></_></weakClassifiers></_>
    <!-- stage 6 -->
    <_>
      <maxWeakCount>3</maxWeakCount>
      <stageThreshold>-1.4497441053390503e+00</stageThreshold>
      <weakClassifiers>
        <_>
          <internalNodes>
            0 -1 4 -288358401 -464793327 -1056855981 -750530303
            -1429503825 -150962166 -1606160161 -6157</internalNodes>
          <leafValues>
            -9.2234331369400024e-01 3.2682925462722778e-01</leafValues></_>
        <_>
          <internalNodes>
            0 -1 23 -749612965 2069213571 1896469210 -149222369
            1519078238 -1089499061 -341389314 -17477</internalNodes>
          <leafValues>
            -8.5441267490386963e-01 4.2525780200958252e-01</leafValues></_>
        <_>
          <internalNodes>
            0 -1 0 -1051469862 -36441721 -1724846805 -15222349
            -1710511385 1334968474 1938492159 1699209855</internalNodes>
          <leafValues>
            -9.2216062545776367e-01 4.7310587763786316e-01</leafValues></_></weakClassifiers></_>
    <!-- stage 7 -->
    <_>
      <maxWeakCount>4</maxWeakCount>
      <stageThreshold>-2.0814528465270996e+00</stageThreshold>
      <weakClassifiers>
        <_>
          <internalNodes>
            0 -1 14 -744757249 -235810661 -250505793 -547516034
            -628364577 -92043127 -659572053 -67394821</internalNodes>
          <leafValues>
            -8.9966994524002075e-01 4.8101267218589783e-01</leafValues></_>
        <_>
          <internalNodes>
            0 -1 41 -541862529 -14696298 -754921251 2140788890 -21372568
            -32859961 -657196133 -562039813</internalNodes>
          <leafValues>
            -8.1747615337371826e-01 5.9539723396301270e-01</leafValues></_>
        <_>
          <internalNodes>
            0 -1 9 -645343233 -237530914 -1818684033 -73674020
            -1449400065 -124090133 -1613771905 -135398408</internalNodes>
          <leafValues>
            -8.8301777839660645e-01 5.4175609350204468e-01</leafValues></_>
        <_>
          <internalNodes>
            0 -1 6 -237307938 -745283129 229834 -70586174 -97787159
            672374799 -1024722805 1597766698</internalNodes>
          <leafValues>
            -8.6762332916259766e-01 5.1871097087860107e-01</leafValues></_></weakClassifiers></_>
    <!-- stage 8 -->
    <_>
      <maxWeakCount>3</maxWeakCount>
      <stageThreshold>-1.4319390058517456e+00</stageThreshold>
      <weakClassifiers>
        <_>
          <internalNodes>
            0 -1 20 -643826209 -779107045 1360055767 -675293229
            2021771400 -72703845 -645871425 -1025</internalNodes>
          <leafValues>
            -8.7572067975997925e-01 7.1428573131561279e-01</leafValues></_>
        <_>
          <internalNodes>
            0 -1 40 -73409825 291368985 1091633502 -1387035813 -97795957
            -1881045271 965126824 704380907</internalNodes>
          <leafValues>
            -9.1654163599014282e-01 2.7980592846870422e-01</leafValues></_>
        <_>
          <internalNodes>
            0 -1 36 -1153743367 -108379953 -620569633 -589602 -401539681
            -108363635 -90047751 -100721955</internalNodes>
          <leafValues>
            -8.3602428436279297e-01 5.0702416896820068e-01</leafValues></_></weakClassifiers></_>
    <!-- stage 9 -->
    <_>
      <maxWeakCount>3</maxWeakCount>
      <stageThreshold>-1.2790911197662354e+00</stageThreshold>
      <weakClassifiers>
        <_>
          <internalNodes>
            0 -1 17 -552627233 -805093361 274006079 -644382385
            -1877222981 -1165918194 1787519695 -13365</internalNodes>
          <leafValues>
            -8.6692017316818237e-01 8.5263156890869141e-01</leafValues></_>
        <_>
          <internalNodes>
            0 -1 24 -246228965 -116879335 -182382433 823394497
            1644759298 -1156874110 -1458481921 -1076147713</internalNodes>
          <leafValues>
            -8.3783680200576782e-01 4.2966020107269287e-01</leafValues></_>
        <_>
          <internalNodes>
            0 -1 3 -1412354049 -251588069 1363178137 -780053991
            -2130599509 -1610604158 315025835 -547884389</internalNodes>
          <leafValues>
            -8.4183114767074585e-01 5.1080304384231567e-01</leafValues></_></weakClassifiers></_>
    <!-- stage 10 -->
    <_>
      <maxWeakCount>3</maxWeakCount>
      <stageThreshold>-1.2654672861099243e+00</stageThreshold>
      <weakClassifiers>
        <_>
          <internalNodes>
            0 -1 28 -715132453 -217464429 1342259549 -742305573
            -905191189 -896826965 1636373086 -1093</internalNodes>
          <leafValues>
            -8.8910633325576782e-01 5.4285717010498047e-01</leafValues></_>
        <_>
          <internalNodes>
            0 -1 18 -45493802 -749612769 17912069 -537181618 -805123954
            -97908736 -2003859398 -1042</internalNodes>
          <leafValues>
            -8.2937949895858765e-01 5.1707696914672852e-01</leafValues></_>
        <_>
          <internalNodes>
            0 -1 38 -779757569 -267304678 134299708 851268699
            -1987852054 1728151560 1895893802 1376488395</internalNodes>
          <leafValues>
            -8.9343786239624023e-01 4.9621281027793884e-01</leafValues></_></weakClassifiers></_>
    <!-- stage 11 -->
    <_>
      <maxWeakCount>3</maxWeakCount>
      <stageThreshold>-1.3148916959762573e+00</stageThreshold>
      <weakClassifiers>
        <_>
          <internalNodes>
            0 -1 35 -805186345 -107003439 554201619 -81823725 -267810581
            -578058104 -385310293 -18001</internalNodes>
          <leafValues>
            -8.8023179769515991e-01 6.6666668653488159e-01</leafValues></_>
        <_>
          <internalNodes>
            0 -1 8 -972820609 -708669286 -805187191 -217137022
            -905377621 945946882 1234143903 -1838181</internalNodes>
          <leafValues>
            -8.2297092676162720e-01 4.8034352064132690e-01</leafValues></_>
        <_>
          <internalNodes>
            0 -1 13 -916516929 1392758873 -913713025 -1132367572
            1217159567 -125581767 -926891873 -381957233</internalNodes>
          <leafValues>
            -9.1500335931777954e-01 4.3512874841690063e-01</leafValues></_></weakClassifiers></_>
    <!-- stage 12 -->
    <_>
      <maxWeakCount>3</maxWeakCount>
      <stageThreshold>-1.2301741838455200e+00</stageThreshold>
      <weakClassifiers>
        <_>
          <internalNodes>
            0 -1 43 -293 -783290485 1476464663 -2105357 -1 -1442054273
            -930897669 -74716513</internalNodes>
          <leafValues>
            -8.6472821235656738e-01 8.9010989665985107e-01</leafValues></_>
        <_>
          <internalNodes>
            0 -1 21 1940373911 1426132995 822186071 1364758681
            -1400735698 2030698520 698991019 -9446409</internalNodes>
          <leafValues>
            -8.6823385953903198e-01 3.9026087522506714e-01</leafValues></_>
        <_>
          <internalNodes>
            0 -1 44 -134087942 139657216 2018104562 394641861
            -1341853301 -2004844543 -2087782703 -1275088741</internalNodes>
          <leafValues>
            -7.5570684671401978e-01 5.9551268815994263e-01</leafValues></_></weakClassifiers></_>
    <!-- stage 13 -->
    <_>
      <maxWeakCount>3</maxWeakCount>
      <stageThreshold>-1.1296325922012329e+00</stageThreshold>
      <weakClassifiers>
        <_>
          <internalNodes>
            0 -1 42 -17 -169938947 1055899566 -201326907 -20817
            -285212673 -16798034 -134225713</internalNodes>
          <leafValues>
            -8.7579214572906494e-01 1.</leafValues></_>
        <_>
          <internalNodes>
            0 -1 15 -1010646647 -218103792 16 1393426696 -2113765213
            -2146402304 -2147270005 -83156853</internalNodes>
          <leafValues>
            -8.1633573770523071e-01 5.8404189348220825e-01</leafValues></_>
        <_>
          <internalNodes>
            0 -1 26 487086288 -75300864 16811149 -786759680 -938989398
            -1979678064 -1610536775 -1413939067</internalNodes>
          <leafValues>
            -8.3788239955902100e-01 6.6062659025192261e-01</leafValues></_></weakClassifiers></_>
    <!-- stage 14 -->
    <_>
      <maxWeakCount>3</maxWeakCount>
      <stageThreshold>-8.4291201829910278e-01</stageThreshold>
      <weakClassifiers>
        <_>
          <internalNodes>
            0 -1 34 -1862221822 196608 2 1342177536 128 4259840 2058
            -1021638581</internalNodes>
          <leafValues>
            -9.2708331346511841e-01 1.</leafValues></_>
        <_>
          <internalNodes>
            0 -1 39 -805207166 1073807360 0 16846848 20490 268435456
            -2147483638 -762750838</internalNodes>
          <leafValues>
            -8.6495345830917358e-01 8.9039045572280884e-01</leafValues></_>
        <_>
          <internalNodes>
            0 -1 22 -2130673536 -1878982656 -2147483631 356581376
            -2146926456 -2146959359 35018 -1413480312</internalNodes>
          <leafValues>
            -8.0621922016143799e-01 1.</leafValues></_></weakClassifiers></_></stages>
  <features>
    <_>
      <rect>
        0 0 8 3</rect></_>
    <_>
      <rect>
        0 0 8 7</rect></_>
    <_>
      <rect>
        0 1 2 2</rect></_>
    <_>
      <rect>
        0 1 3 5</rect></_>
    <_>
      <rect>
        0 2 2 5</rect></_>
    <_>
      <rect>
        0 7 4 2</rect></_>
    <_>
      <rect>
        0 9 3 5</rect></_>
    <_>
      <rect>
        0 9 4 1</rect></_>
    <_>
      <rect>
        0 11 2 2</rect></_>
    <_>
      <rect>
        0 12 5 2</rect></_>
    <_>
      <rect>
        0 12 7 3</rect></_>
    <_>
      <rect>
        0 18 3 2</rect></_>
    <_>
      <rect>
        1 0 3 3</rect></_>
    <_>
      <rect>
        1 7 4 2</rect></_>
    <_>
      <rect>
        1 12 4 1</rect></_>
    <_>
      <rect>
        1 13 1 2</rect></_>
    <_>
      <rect>
        2 2 4 2</rect></_>
    <_>
      <rect>
        2 12 4 3</rect></_>
    <_>
      <rect>
        2 15 3 2</rect></_>
    <_>
      <rect>
        3 7 7 4</rect></_>
    <_>
      <rect>
        3 15 6 3</rect></_>
    <_>
      <rect>
        3 21 2 1</rect></_>
    <_>
      <rect>
        4 6 5 1</rect></_>
    <_>
      <rect>
        4 20 4 1</rect></_>
    <_>
      <rect>
        4 21 4 1</rect></_>
    <_>
      <rect>
        5 6 5 5</rect></_>
    <_>
      <rect>
        5 11 6 1</rect></_>
    <_>
      <rect>
        5 12 4 1</rect></_>
    <_>
      <rect>
        5 15 2 2</rect></_>
    <_>
      <rect>
        6 0 6 8</rect></_>
    <_>
      <rect>
        6 3 5 7</rect></_>
    <_>
      <rect>
        6 6 4 3</rect></_>
    <_>
      <rect>
        6 8 5 2</rect></_>
    <_>
      <rect>
        6 15 6 3</rect></_>
    <_>
      <rect>
        9 16 1 2</rect></_>
    <_>
      <rect>
        10 16 3 1</rect></_>
    <_>
      <rect>
        11 10 3 1</rect></_>
    <_>
      <rect>
        11 11 3 2</rect></_>
    <_>
      <rect>
        12 4 4 2</rect></_>
    <_>
      <rect>
        15 1 3 3</rect></_>
    <_>
      <rect>
        15 15 3 3</rect></_>
    <_>
      <rect>
        18 1 2 2</rect></_>
    <_>
      <rect>
        18 4 2 2</rect></_>
    <_>
      <rect>
        18 18 1 1</rect></_>
    <_>
      <rect>
        20 17 1 1</rect></_></features></cascade>
</opencv_storage>
